digraph Tree {
node [shape=box] ;
0 [label="X[36] <= 0.5\ngini = 0.9\nsamples = 3823\nvalue = [376, 389, 380, 389, 387, 376, 377, 387, 380, 382]"] ;
1 [label="X[42] <= 5.5\ngini = 0.548\nsamples = 547\nvalue = [352, 1, 16, 1, 12, 60, 12, 0, 8, 85]"] ;
0 -> 1 [labeldistance=2.5, labelangle=45, headlabel="True"] ;
2 [label="X[21] <= 8.5\ngini = 0.491\nsamples = 137\nvalue = [0, 0, 2, 1, 0, 50, 0, 0, 0, 84]"] ;
1 -> 2 ;
3 [label="X[38] <= 13.0\ngini = 0.079\nsamples = 49\nvalue = [0, 0, 0, 1, 0, 47, 0, 0, 0, 1]"] ;
2 -> 3 ;
4 [label="X[4] <= 6.0\ngini = 0.041\nsamples = 48\nvalue = [0, 0, 0, 0, 0, 47, 0, 0, 0, 1]"] ;
3 -> 4 ;
5 [label="gini = 0.0\nsamples = 1\nvalue = [0, 0, 0, 0, 0, 0, 0, 0, 0, 1]"] ;
4 -> 5 ;
6 [label="gini = 0.0\nsamples = 47\nvalue = [0, 0, 0, 0, 0, 47, 0, 0, 0, 0]"] ;
4 -> 6 ;
7 [label="gini = 0.0\nsamples = 1\nvalue = [0, 0, 0, 1, 0, 0, 0, 0, 0, 0]"] ;
3 -> 7 ;
8 [label="X[28] <= 1.5\ngini = 0.109\nsamples = 88\nvalue = [0, 0, 2, 0, 0, 3, 0, 0, 0, 83]"] ;
2 -> 8 ;
9 [label="X[21] <= 15.5\ngini = 0.64\nsamples = 5\nvalue = [0, 0, 2, 0, 0, 1, 0, 0, 0, 2]"] ;
8 -> 9 ;
10 [label="X[52] <= 9.0\ngini = 0.444\nsamples = 3\nvalue = [0, 0, 2, 0, 0, 1, 0, 0, 0, 0]"] ;
9 -> 10 ;
11 [label="gini = 0.0\nsamples = 1\nvalue = [0, 0, 0, 0, 0, 1, 0, 0, 0, 0]"] ;
10 -> 11 ;
12 [label="gini = 0.0\nsamples = 2\nvalue = [0, 0, 2, 0, 0, 0, 0, 0, 0, 0]"] ;
10 -> 12 ;
13 [label="gini = 0.0\nsamples = 2\nvalue = [0, 0, 0, 0, 0, 0, 0, 0, 0, 2]"] ;
9 -> 13 ;
14 [label="X[33] <= 0.5\ngini = 0.047\nsamples = 83\nvalue = [0, 0, 0, 0, 0, 2, 0, 0, 0, 81]"] ;
8 -> 14 ;
15 [label="X[21] <= 9.5\ngini = 0.024\nsamples = 81\nvalue = [0, 0, 0, 0, 0, 1, 0, 0, 0, 80]"] ;
14 -> 15 ;
16 [label="X[25] <= 2.5\ngini = 0.375\nsamples = 4\nvalue = [0, 0, 0, 0, 0, 1, 0, 0, 0, 3]"] ;
15 -> 16 ;
17 [label="gini = 0.0\nsamples = 3\nvalue = [0, 0, 0, 0, 0, 0, 0, 0, 0, 3]"] ;
16 -> 17 ;
18 [label="gini = 0.0\nsamples = 1\nvalue = [0, 0, 0, 0, 0, 1, 0, 0, 0, 0]"] ;
16 -> 18 ;
19 [label="gini = 0.0\nsamples = 77\nvalue = [0, 0, 0, 0, 0, 0, 0, 0, 0, 77]"] ;
15 -> 19 ;
20 [label="X[61] <= 4.0\ngini = 0.5\nsamples = 2\nvalue = [0, 0, 0, 0, 0, 1, 0, 0, 0, 1]"] ;
14 -> 20 ;
21 [label="gini = 0.0\nsamples = 1\nvalue = [0, 0, 0, 0, 0, 1, 0, 0, 0, 0]"] ;
20 -> 21 ;
22 [label="gini = 0.0\nsamples = 1\nvalue = [0, 0, 0, 0, 0, 0, 0, 0, 0, 1]"] ;
20 -> 22 ;
23 [label="X[21] <= 4.5\ngini = 0.259\nsamples = 410\nvalue = [352, 1, 14, 0, 12, 10, 12, 0, 8, 1]"] ;
1 -> 23 ;
24 [label="X[59] <= 15.5\ngini = 0.774\nsamples = 51\nvalue = [2, 1, 14, 0, 12, 10, 12, 0, 0, 0]"] ;
23 -> 24 ;
25 [label="X[41] <= 4.5\ngini = 0.739\nsamples = 39\nvalue = [2, 1, 2, 0, 12, 10, 12, 0, 0, 0]"] ;
24 -> 25 ;
26 [label="X[2] <= 4.5\ngini = 0.656\nsamples = 27\nvalue = [1, 1, 2, 0, 1, 10, 12, 0, 0, 0]"] ;
25 -> 26 ;
27 [label="X[21] <= 0.5\ngini = 0.347\nsamples = 15\nvalue = [1, 1, 1, 0, 0, 0, 12, 0, 0, 0]"] ;
26 -> 27 ;
28 [label="X[52] <= 3.0\ngini = 0.142\nsamples = 13\nvalue = [0, 1, 0, 0, 0, 0, 12, 0, 0, 0]"] ;
27 -> 28 ;
29 [label="gini = 0.0\nsamples = 1\nvalue = [0, 1, 0, 0, 0, 0, 0, 0, 0, 0]"] ;
28 -> 29 ;
30 [label="gini = 0.0\nsamples = 12\nvalue = [0, 0, 0, 0, 0, 0, 12, 0, 0, 0]"] ;
28 -> 30 ;
31 [label="X[22] <= 4.5\ngini = 0.5\nsamples = 2\nvalue = [1, 0, 1, 0, 0, 0, 0, 0, 0, 0]"] ;
27 -> 31 ;
32 [label="gini = 0.0\nsamples = 1\nvalue = [0, 0, 1, 0, 0, 0, 0, 0, 0, 0]"] ;
31 -> 32 ;
33 [label="gini = 0.0\nsamples = 1\nvalue = [1, 0, 0, 0, 0, 0, 0, 0, 0, 0]"] ;
31 -> 33 ;
34 [label="X[27] <= 12.0\ngini = 0.292\nsamples = 12\nvalue = [0, 0, 1, 0, 1, 10, 0, 0, 0, 0]"] ;
26 -> 34 ;
35 [label="gini = 0.0\nsamples = 10\nvalue = [0, 0, 0, 0, 0, 10, 0, 0, 0, 0]"] ;
34 -> 35 ;
36 [label="X[30] <= 2.5\ngini = 0.5\nsamples = 2\nvalue = [0, 0, 1, 0, 1, 0, 0, 0, 0, 0]"] ;
34 -> 36 ;
37 [label="gini = 0.0\nsamples = 1\nvalue = [0, 0, 1, 0, 0, 0, 0, 0, 0, 0]"] ;
36 -> 37 ;
38 [label="gini = 0.0\nsamples = 1\nvalue = [0, 0, 0, 0, 1, 0, 0, 0, 0, 0]"] ;
36 -> 38 ;
39 [label="X[25] <= 2.5\ngini = 0.153\nsamples = 12\nvalue = [1, 0, 0, 0, 11, 0, 0, 0, 0, 0]"] ;
25 -> 39 ;
40 [label="gini = 0.0\nsamples = 11\nvalue = [0, 0, 0, 0, 11, 0, 0, 0, 0, 0]"] ;
39 -> 40 ;
41 [label="gini = 0.0\nsamples = 1\nvalue = [1, 0, 0, 0, 0, 0, 0, 0, 0, 0]"] ;
39 -> 41 ;
42 [label="gini = 0.0\nsamples = 12\nvalue = [0, 0, 12, 0, 0, 0, 0, 0, 0, 0]"] ;
24 -> 42 ;
43 [label="X[28] <= 11.5\ngini = 0.049\nsamples = 359\nvalue = [350, 0, 0, 0, 0, 0, 0, 0, 8, 1]"] ;
23 -> 43 ;
44 [label="X[30] <= 0.5\ngini = 0.011\nsamples = 351\nvalue = [349, 0, 0, 0, 0, 0, 0, 0, 2, 0]"] ;
43 -> 44 ;
45 [label="gini = 0.0\nsamples = 2\nvalue = [0, 0, 0, 0, 0, 0, 0, 0, 2, 0]"] ;
44 -> 45 ;
46 [label="gini = 0.0\nsamples = 349\nvalue = [349, 0, 0, 0, 0, 0, 0, 0, 0, 0]"] ;
44 -> 46 ;
47 [label="X[27] <= 12.5\ngini = 0.406\nsamples = 8\nvalue = [1, 0, 0, 0, 0, 0, 0, 0, 6, 1]"] ;
43 -> 47 ;
48 [label="X[5] <= 3.5\ngini = 0.5\nsamples = 2\nvalue = [1, 0, 0, 0, 0, 0, 0, 0, 0, 1]"] ;
47 -> 48 ;
49 [label="gini = 0.0\nsamples = 1\nvalue = [1, 0, 0, 0, 0, 0, 0, 0, 0, 0]"] ;
48 -> 49 ;
50 [label="gini = 0.0\nsamples = 1\nvalue = [0, 0, 0, 0, 0, 0, 0, 0, 0, 1]"] ;
48 -> 50 ;
51 [label="gini = 0.0\nsamples = 6\nvalue = [0, 0, 0, 0, 0, 0, 0, 0, 6, 0]"] ;
47 -> 51 ;
52 [label="X[60] <= 2.5\ngini = 0.89\nsamples = 3276\nvalue = [24, 388, 364, 388, 375, 316, 365, 387, 372, 297]"] ;
0 -> 52 [labeldistance=2.5, labelangle=-45, headlabel="False"] ;
53 [label="X[18] <= 9.5\ngini = 0.411\nsamples = 407\nvalue = [0, 4, 3, 4, 30, 19, 0, 309, 14, 24]"] ;
52 -> 53 ;
54 [label="X[53] <= 6.0\ngini = 0.088\nsamples = 310\nvalue = [0, 3, 1, 4, 0, 1, 0, 296, 3, 2]"] ;
53 -> 54 ;
55 [label="X[35] <= 1.5\ngini = 0.046\nsamples = 303\nvalue = [0, 0, 0, 1, 0, 1, 0, 296, 3, 2]"] ;
54 -> 55 ;
56 [label="X[45] <= 4.5\ngini = 0.444\nsamples = 3\nvalue = [0, 0, 0, 0, 0, 1, 0, 0, 0, 2]"] ;
55 -> 56 ;
57 [label="gini = 0.0\nsamples = 2\nvalue = [0, 0, 0, 0, 0, 0, 0, 0, 0, 2]"] ;
56 -> 57 ;
58 [label="gini = 0.0\nsamples = 1\nvalue = [0, 0, 0, 0, 0, 1, 0, 0, 0, 0]"] ;
56 -> 58 ;
59 [label="X[36] <= 6.0\ngini = 0.026\nsamples = 300\nvalue = [0, 0, 0, 1, 0, 0, 0, 296, 3, 0]"] ;
55 -> 59 ;
60 [label="gini = 0.0\nsamples = 2\nvalue = [0, 0, 0, 0, 0, 0, 0, 0, 2, 0]"] ;
59 -> 60 ;
61 [label="X[29] <= 1.5\ngini = 0.013\nsamples = 298\nvalue = [0, 0, 0, 1, 0, 0, 0, 296, 1, 0]"] ;
59 -> 61 ;
62 [label="X[27] <= 13.5\ngini = 0.449\nsamples = 7\nvalue = [0, 0, 0, 1, 0, 0, 0, 5, 1, 0]"] ;
61 -> 62 ;
63 [label="gini = 0.0\nsamples = 5\nvalue = [0, 0, 0, 0, 0, 0, 0, 5, 0, 0]"] ;
62 -> 63 ;
64 [label="X[57] <= 1.5\ngini = 0.5\nsamples = 2\nvalue = [0, 0, 0, 1, 0, 0, 0, 0, 1, 0]"] ;
62 -> 64 ;
65 [label="gini = 0.0\nsamples = 1\nvalue = [0, 0, 0, 0, 0, 0, 0, 0, 1, 0]"] ;
64 -> 65 ;
66 [label="gini = 0.0\nsamples = 1\nvalue = [0, 0, 0, 1, 0, 0, 0, 0, 0, 0]"] ;
64 -> 66 ;
67 [label="gini = 0.0\nsamples = 291\nvalue = [0, 0, 0, 0, 0, 0, 0, 291, 0, 0]"] ;
61 -> 67 ;
68 [label="X[3] <= 6.5\ngini = 0.612\nsamples = 7\nvalue = [0, 3, 1, 3, 0, 0, 0, 0, 0, 0]"] ;
54 -> 68 ;
69 [label="gini = 0.0\nsamples = 3\nvalue = [0, 3, 0, 0, 0, 0, 0, 0, 0, 0]"] ;
68 -> 69 ;
70 [label="X[55] <= 2.5\ngini = 0.375\nsamples = 4\nvalue = [0, 0, 1, 3, 0, 0, 0, 0, 0, 0]"] ;
68 -> 70 ;
71 [label="gini = 0.0\nsamples = 3\nvalue = [0, 0, 0, 3, 0, 0, 0, 0, 0, 0]"] ;
70 -> 71 ;
72 [label="gini = 0.0\nsamples = 1\nvalue = [0, 0, 1, 0, 0, 0, 0, 0, 0, 0]"] ;
70 -> 72 ;
73 [label="X[12] <= 3.5\ngini = 0.787\nsamples = 97\nvalue = [0, 1, 2, 0, 30, 18, 0, 13, 11, 22]"] ;
53 -> 73 ;
74 [label="X[4] <= 14.5\ngini = 0.213\nsamples = 33\nvalue = [0, 0, 0, 0, 29, 0, 0, 0, 0, 4]"] ;
73 -> 74 ;
75 [label="gini = 0.0\nsamples = 29\nvalue = [0, 0, 0, 0, 29, 0, 0, 0, 0, 0]"] ;
74 -> 75 ;
76 [label="gini = 0.0\nsamples = 4\nvalue = [0, 0, 0, 0, 0, 0, 0, 0, 0, 4]"] ;
74 -> 76 ;
77 [label="X[21] <= 4.5\ngini = 0.77\nsamples = 64\nvalue = [0, 1, 2, 0, 1, 18, 0, 13, 11, 18]"] ;
73 -> 77 ;
78 [label="X[20] <= 8.5\ngini = 0.331\nsamples = 21\nvalue = [0, 1, 2, 0, 1, 17, 0, 0, 0, 0]"] ;
77 -> 78 ;
79 [label="gini = 0.0\nsamples = 17\nvalue = [0, 0, 0, 0, 0, 17, 0, 0, 0, 0]"] ;
78 -> 79 ;
80 [label="X[34] <= 12.0\ngini = 0.625\nsamples = 4\nvalue = [0, 1, 2, 0, 1, 0, 0, 0, 0, 0]"] ;
78 -> 80 ;
81 [label="gini = 0.0\nsamples = 2\nvalue = [0, 0, 2, 0, 0, 0, 0, 0, 0, 0]"] ;
80 -> 81 ;
82 [label="X[25] <= 5.0\ngini = 0.5\nsamples = 2\nvalue = [0, 1, 0, 0, 1, 0, 0, 0, 0, 0]"] ;
80 -> 82 ;
83 [label="gini = 0.0\nsamples = 1\nvalue = [0, 1, 0, 0, 0, 0, 0, 0, 0, 0]"] ;
82 -> 83 ;
84 [label="gini = 0.0\nsamples = 1\nvalue = [0, 0, 0, 0, 1, 0, 0, 0, 0, 0]"] ;
82 -> 84 ;
85 [label="X[42] <= 7.5\ngini = 0.667\nsamples = 43\nvalue = [0, 0, 0, 0, 0, 1, 0, 13, 11, 18]"] ;
77 -> 85 ;
86 [label="X[27] <= 5.5\ngini = 0.518\nsamples = 32\nvalue = [0, 0, 0, 0, 0, 1, 0, 13, 0, 18]"] ;
85 -> 86 ;
87 [label="X[19] <= 10.0\ngini = 0.32\nsamples = 15\nvalue = [0, 0, 0, 0, 0, 0, 0, 12, 0, 3]"] ;
86 -> 87 ;
88 [label="gini = 0.0\nsamples = 12\nvalue = [0, 0, 0, 0, 0, 0, 0, 12, 0, 0]"] ;
87 -> 88 ;
89 [label="gini = 0.0\nsamples = 3\nvalue = [0, 0, 0, 0, 0, 0, 0, 0, 0, 3]"] ;
87 -> 89 ;
90 [label="X[35] <= 15.5\ngini = 0.215\nsamples = 17\nvalue = [0, 0, 0, 0, 0, 1, 0, 1, 0, 15]"] ;
86 -> 90 ;
91 [label="gini = 0.0\nsamples = 15\nvalue = [0, 0, 0, 0, 0, 0, 0, 0, 0, 15]"] ;
90 -> 91 ;
92 [label="X[30] <= 0.5\ngini = 0.5\nsamples = 2\nvalue = [0, 0, 0, 0, 0, 1, 0, 1, 0, 0]"] ;
90 -> 92 ;
93 [label="gini = 0.0\nsamples = 1\nvalue = [0, 0, 0, 0, 0, 1, 0, 0, 0, 0]"] ;
92 -> 93 ;
94 [label="gini = 0.0\nsamples = 1\nvalue = [0, 0, 0, 0, 0, 0, 0, 1, 0, 0]"] ;
92 -> 94 ;
95 [label="gini = 0.0\nsamples = 11\nvalue = [0, 0, 0, 0, 0, 0, 0, 0, 11, 0]"] ;
85 -> 95 ;
96 [label="X[42] <= 6.5\ngini = 0.882\nsamples = 2869\nvalue = [24, 384, 361, 384, 345, 297, 365, 78, 358, 273]"] ;
52 -> 96 ;
97 [label="X[26] <= 7.5\ngini = 0.838\nsamples = 1666\nvalue = [0, 252, 257, 379, 105, 293, 0, 60, 48, 272]"] ;
96 -> 97 ;
98 [label="X[51] <= 13.5\ngini = 0.708\nsamples = 792\nvalue = [0, 85, 223, 346, 0, 26, 0, 57, 6, 49]"] ;
97 -> 98 ;
99 [label="X[53] <= 7.5\ngini = 0.497\nsamples = 481\nvalue = [0, 25, 17, 334, 0, 16, 0, 38, 4, 47]"] ;
98 -> 99 ;
100 [label="X[19] <= 6.5\ngini = 0.747\nsamples = 87\nvalue = [0, 5, 8, 7, 0, 11, 0, 36, 1, 19]"] ;
99 -> 100 ;
101 [label="X[30] <= 0.5\ngini = 0.487\nsamples = 52\nvalue = [0, 0, 6, 7, 0, 0, 0, 36, 1, 2]"] ;
100 -> 101 ;
102 [label="X[18] <= 2.5\ngini = 0.648\nsamples = 16\nvalue = [0, 0, 6, 7, 0, 0, 0, 2, 1, 0]"] ;
101 -> 102 ;
103 [label="gini = 0.0\nsamples = 7\nvalue = [0, 0, 0, 7, 0, 0, 0, 0, 0, 0]"] ;
102 -> 103 ;
104 [label="X[44] <= 13.5\ngini = 0.494\nsamples = 9\nvalue = [0, 0, 6, 0, 0, 0, 0, 2, 1, 0]"] ;
102 -> 104 ;
105 [label="gini = 0.0\nsamples = 6\nvalue = [0, 0, 6, 0, 0, 0, 0, 0, 0, 0]"] ;
104 -> 105 ;
106 [label="X[9] <= 8.5\ngini = 0.444\nsamples = 3\nvalue = [0, 0, 0, 0, 0, 0, 0, 2, 1, 0]"] ;
104 -> 106 ;
107 [label="gini = 0.0\nsamples = 1\nvalue = [0, 0, 0, 0, 0, 0, 0, 0, 1, 0]"] ;
106 -> 107 ;
108 [label="gini = 0.0\nsamples = 2\nvalue = [0, 0, 0, 0, 0, 0, 0, 2, 0, 0]"] ;
106 -> 108 ;
109 [label="X[61] <= 12.0\ngini = 0.105\nsamples = 36\nvalue = [0, 0, 0, 0, 0, 0, 0, 34, 0, 2]"] ;
101 -> 109 ;
110 [label="gini = 0.0\nsamples = 34\nvalue = [0, 0, 0, 0, 0, 0, 0, 34, 0, 0]"] ;
109 -> 110 ;
111 [label="gini = 0.0\nsamples = 2\nvalue = [0, 0, 0, 0, 0, 0, 0, 0, 0, 2]"] ;
109 -> 111 ;
112 [label="X[21] <= 5.0\ngini = 0.642\nsamples = 35\nvalue = [0, 5, 2, 0, 0, 11, 0, 0, 0, 17]"] ;
100 -> 112 ;
113 [label="X[5] <= 3.5\ngini = 0.427\nsamples = 15\nvalue = [0, 2, 2, 0, 0, 11, 0, 0, 0, 0]"] ;
112 -> 113 ;
114 [label="X[20] <= 14.0\ngini = 0.5\nsamples = 4\nvalue = [0, 2, 2, 0, 0, 0, 0, 0, 0, 0]"] ;
113 -> 114 ;
115 [label="gini = 0.0\nsamples = 2\nvalue = [0, 0, 2, 0, 0, 0, 0, 0, 0, 0]"] ;
114 -> 115 ;
116 [label="gini = 0.0\nsamples = 2\nvalue = [0, 2, 0, 0, 0, 0, 0, 0, 0, 0]"] ;
114 -> 116 ;
117 [label="gini = 0.0\nsamples = 11\nvalue = [0, 0, 0, 0, 0, 11, 0, 0, 0, 0]"] ;
113 -> 117 ;
118 [label="X[43] <= 3.5\ngini = 0.255\nsamples = 20\nvalue = [0, 3, 0, 0, 0, 0, 0, 0, 0, 17]"] ;
112 -> 118 ;
119 [label="gini = 0.0\nsamples = 17\nvalue = [0, 0, 0, 0, 0, 0, 0, 0, 0, 17]"] ;
118 -> 119 ;
120 [label="gini = 0.0\nsamples = 3\nvalue = [0, 3, 0, 0, 0, 0, 0, 0, 0, 0]"] ;
118 -> 120 ;
121 [label="X[19] <= 10.5\ngini = 0.303\nsamples = 394\nvalue = [0, 20, 9, 327, 0, 5, 0, 2, 3, 28]"] ;
99 -> 121 ;
122 [label="X[18] <= 13.5\ngini = 0.141\nsamples = 337\nvalue = [0, 3, 7, 312, 0, 0, 0, 2, 3, 10]"] ;
121 -> 122 ;
123 [label="X[45] <= 1.5\ngini = 0.096\nsamples = 324\nvalue = [0, 3, 6, 308, 0, 0, 0, 2, 0, 5]"] ;
122 -> 123 ;
124 [label="gini = 0.0\nsamples = 4\nvalue = [0, 0, 4, 0, 0, 0, 0, 0, 0, 0]"] ;
123 -> 124 ;
125 [label="X[59] <= 5.0\ngini = 0.073\nsamples = 320\nvalue = [0, 3, 2, 308, 0, 0, 0, 2, 0, 5]"] ;
123 -> 125 ;
126 [label="X[34] <= 11.0\ngini = 0.48\nsamples = 5\nvalue = [0, 3, 0, 0, 0, 0, 0, 2, 0, 0]"] ;
125 -> 126 ;
127 [label="gini = 0.0\nsamples = 2\nvalue = [0, 0, 0, 0, 0, 0, 0, 2, 0, 0]"] ;
126 -> 127 ;
128 [label="gini = 0.0\nsamples = 3\nvalue = [0, 3, 0, 0, 0, 0, 0, 0, 0, 0]"] ;
126 -> 128 ;
129 [label="X[28] <= 2.0\ngini = 0.044\nsamples = 315\nvalue = [0, 0, 2, 308, 0, 0, 0, 0, 0, 5]"] ;
125 -> 129 ;
130 [label="gini = 0.0\nsamples = 2\nvalue = [0, 0, 2, 0, 0, 0, 0, 0, 0, 0]"] ;
129 -> 130 ;
131 [label="X[29] <= 15.5\ngini = 0.031\nsamples = 313\nvalue = [0, 0, 0, 308, 0, 0, 0, 0, 0, 5]"] ;
129 -> 131 ;
132 [label="X[36] <= 2.5\ngini = 0.007\nsamples = 302\nvalue = [0, 0, 0, 301, 0, 0, 0, 0, 0, 1]"] ;
131 -> 132 ;
133 [label="X[54] <= 11.0\ngini = 0.375\nsamples = 4\nvalue = [0, 0, 0, 3, 0, 0, 0, 0, 0, 1]"] ;
132 -> 133 ;
134 [label="gini = 0.0\nsamples = 3\nvalue = [0, 0, 0, 3, 0, 0, 0, 0, 0, 0]"] ;
133 -> 134 ;
135 [label="gini = 0.0\nsamples = 1\nvalue = [0, 0, 0, 0, 0, 0, 0, 0, 0, 1]"] ;
133 -> 135 ;
136 [label="gini = 0.0\nsamples = 298\nvalue = [0, 0, 0, 298, 0, 0, 0, 0, 0, 0]"] ;
132 -> 136 ;
137 [label="X[27] <= 8.0\ngini = 0.463\nsamples = 11\nvalue = [0, 0, 0, 7, 0, 0, 0, 0, 0, 4]"] ;
131 -> 137 ;
138 [label="gini = 0.0\nsamples = 6\nvalue = [0, 0, 0, 6, 0, 0, 0, 0, 0, 0]"] ;
137 -> 138 ;
139 [label="X[11] <= 8.0\ngini = 0.32\nsamples = 5\nvalue = [0, 0, 0, 1, 0, 0, 0, 0, 0, 4]"] ;
137 -> 139 ;
140 [label="gini = 0.0\nsamples = 1\nvalue = [0, 0, 0, 1, 0, 0, 0, 0, 0, 0]"] ;
139 -> 140 ;
141 [label="gini = 0.0\nsamples = 4\nvalue = [0, 0, 0, 0, 0, 0, 0, 0, 0, 4]"] ;
139 -> 141 ;
142 [label="X[2] <= 5.5\ngini = 0.698\nsamples = 13\nvalue = [0, 0, 1, 4, 0, 0, 0, 0, 3, 5]"] ;
122 -> 142 ;
143 [label="X[12] <= 9.0\ngini = 0.49\nsamples = 7\nvalue = [0, 0, 0, 4, 0, 0, 0, 0, 3, 0]"] ;
142 -> 143 ;
144 [label="gini = 0.0\nsamples = 3\nvalue = [0, 0, 0, 0, 0, 0, 0, 0, 3, 0]"] ;
143 -> 144 ;
145 [label="gini = 0.0\nsamples = 4\nvalue = [0, 0, 0, 4, 0, 0, 0, 0, 0, 0]"] ;
143 -> 145 ;
146 [label="X[26] <= 3.5\ngini = 0.278\nsamples = 6\nvalue = [0, 0, 1, 0, 0, 0, 0, 0, 0, 5]"] ;
142 -> 146 ;
147 [label="gini = 0.0\nsamples = 1\nvalue = [0, 0, 1, 0, 0, 0, 0, 0, 0, 0]"] ;
146 -> 147 ;
148 [label="gini = 0.0\nsamples = 5\nvalue = [0, 0, 0, 0, 0, 0, 0, 0, 0, 5]"] ;
146 -> 148 ;
149 [label="X[2] <= 7.5\ngini = 0.733\nsamples = 57\nvalue = [0, 17, 2, 15, 0, 5, 0, 0, 0, 18]"] ;
121 -> 149 ;
150 [label="X[36] <= 13.5\ngini = 0.62\nsamples = 36\nvalue = [0, 16, 1, 1, 0, 3, 0, 0, 0, 15]"] ;
149 -> 150 ;
151 [label="X[59] <= 5.0\ngini = 0.512\nsamples = 21\nvalue = [0, 4, 1, 1, 0, 1, 0, 0, 0, 14]"] ;
150 -> 151 ;
152 [label="gini = 0.0\nsamples = 4\nvalue = [0, 4, 0, 0, 0, 0, 0, 0, 0, 0]"] ;
151 -> 152 ;
153 [label="X[27] <= 15.5\ngini = 0.311\nsamples = 17\nvalue = [0, 0, 1, 1, 0, 1, 0, 0, 0, 14]"] ;
151 -> 153 ;
154 [label="X[63] <= 7.0\ngini = 0.124\nsamples = 15\nvalue = [0, 0, 1, 0, 0, 0, 0, 0, 0, 14]"] ;
153 -> 154 ;
155 [label="gini = 0.0\nsamples = 14\nvalue = [0, 0, 0, 0, 0, 0, 0, 0, 0, 14]"] ;
154 -> 155 ;
156 [label="gini = 0.0\nsamples = 1\nvalue = [0, 0, 1, 0, 0, 0, 0, 0, 0, 0]"] ;
154 -> 156 ;
157 [label="X[12] <= 14.0\ngini = 0.5\nsamples = 2\nvalue = [0, 0, 0, 1, 0, 1, 0, 0, 0, 0]"] ;
153 -> 157 ;
158 [label="gini = 0.0\nsamples = 1\nvalue = [0, 0, 0, 0, 0, 1, 0, 0, 0, 0]"] ;
157 -> 158 ;
159 [label="gini = 0.0\nsamples = 1\nvalue = [0, 0, 0, 1, 0, 0, 0, 0, 0, 0]"] ;
157 -> 159 ;
160 [label="X[10] <= 13.5\ngini = 0.338\nsamples = 15\nvalue = [0, 12, 0, 0, 0, 2, 0, 0, 0, 1]"] ;
150 -> 160 ;
161 [label="X[6] <= 12.0\ngini = 0.142\nsamples = 13\nvalue = [0, 12, 0, 0, 0, 1, 0, 0, 0, 0]"] ;
160 -> 161 ;
162 [label="gini = 0.0\nsamples = 12\nvalue = [0, 12, 0, 0, 0, 0, 0, 0, 0, 0]"] ;
161 -> 162 ;
163 [label="gini = 0.0\nsamples = 1\nvalue = [0, 0, 0, 0, 0, 1, 0, 0, 0, 0]"] ;
161 -> 163 ;
164 [label="X[36] <= 15.0\ngini = 0.5\nsamples = 2\nvalue = [0, 0, 0, 0, 0, 1, 0, 0, 0, 1]"] ;
160 -> 164 ;
165 [label="gini = 0.0\nsamples = 1\nvalue = [0, 0, 0, 0, 0, 0, 0, 0, 0, 1]"] ;
164 -> 165 ;
166 [label="gini = 0.0\nsamples = 1\nvalue = [0, 0, 0, 0, 0, 1, 0, 0, 0, 0]"] ;
164 -> 166 ;
167 [label="X[18] <= 10.5\ngini = 0.522\nsamples = 21\nvalue = [0, 1, 1, 14, 0, 2, 0, 0, 0, 3]"] ;
149 -> 167 ;
168 [label="X[20] <= 5.0\ngini = 0.377\nsamples = 18\nvalue = [0, 1, 1, 14, 0, 2, 0, 0, 0, 0]"] ;
167 -> 168 ;
169 [label="X[28] <= 10.0\ngini = 0.444\nsamples = 3\nvalue = [0, 1, 0, 0, 0, 2, 0, 0, 0, 0]"] ;
168 -> 169 ;
170 [label="gini = 0.0\nsamples = 1\nvalue = [0, 1, 0, 0, 0, 0, 0, 0, 0, 0]"] ;
169 -> 170 ;
171 [label="gini = 0.0\nsamples = 2\nvalue = [0, 0, 0, 0, 0, 2, 0, 0, 0, 0]"] ;
169 -> 171 ;
172 [label="X[63] <= 3.0\ngini = 0.124\nsamples = 15\nvalue = [0, 0, 1, 14, 0, 0, 0, 0, 0, 0]"] ;
168 -> 172 ;
173 [label="gini = 0.0\nsamples = 14\nvalue = [0, 0, 0, 14, 0, 0, 0, 0, 0, 0]"] ;
172 -> 173 ;
174 [label="gini = 0.0\nsamples = 1\nvalue = [0, 0, 1, 0, 0, 0, 0, 0, 0, 0]"] ;
172 -> 174 ;
175 [label="gini = 0.0\nsamples = 3\nvalue = [0, 0, 0, 0, 0, 0, 0, 0, 0, 3]"] ;
167 -> 175 ;
176 [label="X[27] <= 10.5\ngini = 0.518\nsamples = 311\nvalue = [0, 60, 206, 12, 0, 10, 0, 19, 2, 2]"] ;
98 -> 176 ;
177 [label="X[61] <= 1.5\ngini = 0.193\nsamples = 221\nvalue = [0, 4, 198, 4, 0, 0, 0, 14, 0, 1]"] ;
176 -> 177 ;
178 [label="X[19] <= 6.0\ngini = 0.227\nsamples = 16\nvalue = [0, 1, 0, 0, 0, 0, 0, 14, 0, 1]"] ;
177 -> 178 ;
179 [label="gini = 0.0\nsamples = 14\nvalue = [0, 0, 0, 0, 0, 0, 0, 14, 0, 0]"] ;
178 -> 179 ;
180 [label="X[60] <= 11.5\ngini = 0.5\nsamples = 2\nvalue = [0, 1, 0, 0, 0, 0, 0, 0, 0, 1]"] ;
178 -> 180 ;
181 [label="gini = 0.0\nsamples = 1\nvalue = [0, 0, 0, 0, 0, 0, 0, 0, 0, 1]"] ;
180 -> 181 ;
182 [label="gini = 0.0\nsamples = 1\nvalue = [0, 1, 0, 0, 0, 0, 0, 0, 0, 0]"] ;
180 -> 182 ;
183 [label="X[45] <= 14.5\ngini = 0.067\nsamples = 205\nvalue = [0, 3, 198, 4, 0, 0, 0, 0, 0, 0]"] ;
177 -> 183 ;
184 [label="X[2] <= 1.0\ngini = 0.02\nsamples = 200\nvalue = [0, 2, 198, 0, 0, 0, 0, 0, 0, 0]"] ;
183 -> 184 ;
185 [label="gini = 0.0\nsamples = 1\nvalue = [0, 1, 0, 0, 0, 0, 0, 0, 0, 0]"] ;
184 -> 185 ;
186 [label="X[54] <= 0.5\ngini = 0.01\nsamples = 199\nvalue = [0, 1, 198, 0, 0, 0, 0, 0, 0, 0]"] ;
184 -> 186 ;
187 [label="X[19] <= 7.0\ngini = 0.198\nsamples = 9\nvalue = [0, 1, 8, 0, 0, 0, 0, 0, 0, 0]"] ;
186 -> 187 ;
188 [label="gini = 0.0\nsamples = 8\nvalue = [0, 0, 8, 0, 0, 0, 0, 0, 0, 0]"] ;
187 -> 188 ;
189 [label="gini = 0.0\nsamples = 1\nvalue = [0, 1, 0, 0, 0, 0, 0, 0, 0, 0]"] ;
187 -> 189 ;
190 [label="gini = 0.0\nsamples = 190\nvalue = [0, 0, 190, 0, 0, 0, 0, 0, 0, 0]"] ;
186 -> 190 ;
191 [label="X[18] <= 7.5\ngini = 0.32\nsamples = 5\nvalue = [0, 1, 0, 4, 0, 0, 0, 0, 0, 0]"] ;
183 -> 191 ;
192 [label="gini = 0.0\nsamples = 4\nvalue = [0, 0, 0, 4, 0, 0, 0, 0, 0, 0]"] ;
191 -> 192 ;
193 [label="gini = 0.0\nsamples = 1\nvalue = [0, 1, 0, 0, 0, 0, 0, 0, 0, 0]"] ;
191 -> 193 ;
194 [label="X[20] <= 10.5\ngini = 0.581\nsamples = 90\nvalue = [0, 56, 8, 8, 0, 10, 0, 5, 2, 1]"] ;
176 -> 194 ;
195 [label="X[17] <= 4.5\ngini = 0.728\nsamples = 26\nvalue = [0, 3, 7, 0, 0, 10, 0, 5, 1, 0]"] ;
194 -> 195 ;
196 [label="X[28] <= 9.5\ngini = 0.626\nsamples = 19\nvalue = [0, 3, 0, 0, 0, 10, 0, 5, 1, 0]"] ;
195 -> 196 ;
197 [label="X[20] <= 6.5\ngini = 0.165\nsamples = 11\nvalue = [0, 1, 0, 0, 0, 10, 0, 0, 0, 0]"] ;
196 -> 197 ;
198 [label="gini = 0.0\nsamples = 10\nvalue = [0, 0, 0, 0, 0, 10, 0, 0, 0, 0]"] ;
197 -> 198 ;
199 [label="gini = 0.0\nsamples = 1\nvalue = [0, 1, 0, 0, 0, 0, 0, 0, 0, 0]"] ;
197 -> 199 ;
200 [label="X[29] <= 15.5\ngini = 0.531\nsamples = 8\nvalue = [0, 2, 0, 0, 0, 0, 0, 5, 1, 0]"] ;
196 -> 200 ;
201 [label="X[19] <= 14.5\ngini = 0.444\nsamples = 3\nvalue = [0, 2, 0, 0, 0, 0, 0, 0, 1, 0]"] ;
200 -> 201 ;
202 [label="gini = 0.0\nsamples = 1\nvalue = [0, 0, 0, 0, 0, 0, 0, 0, 1, 0]"] ;
201 -> 202 ;
203 [label="gini = 0.0\nsamples = 2\nvalue = [0, 2, 0, 0, 0, 0, 0, 0, 0, 0]"] ;
201 -> 203 ;
204 [label="gini = 0.0\nsamples = 5\nvalue = [0, 0, 0, 0, 0, 0, 0, 5, 0, 0]"] ;
200 -> 204 ;
205 [label="gini = 0.0\nsamples = 7\nvalue = [0, 0, 7, 0, 0, 0, 0, 0, 0, 0]"] ;
195 -> 205 ;
206 [label="X[43] <= 8.5\ngini = 0.298\nsamples = 64\nvalue = [0, 53, 1, 8, 0, 0, 0, 0, 1, 1]"] ;
194 -> 206 ;
207 [label="X[62] <= 6.5\ngini = 0.43\nsamples = 11\nvalue = [0, 2, 0, 8, 0, 0, 0, 0, 0, 1]"] ;
206 -> 207 ;
208 [label="X[60] <= 14.5\ngini = 0.198\nsamples = 9\nvalue = [0, 0, 0, 8, 0, 0, 0, 0, 0, 1]"] ;
207 -> 208 ;
209 [label="gini = 0.0\nsamples = 8\nvalue = [0, 0, 0, 8, 0, 0, 0, 0, 0, 0]"] ;
208 -> 209 ;
210 [label="gini = 0.0\nsamples = 1\nvalue = [0, 0, 0, 0, 0, 0, 0, 0, 0, 1]"] ;
208 -> 210 ;
211 [label="gini = 0.0\nsamples = 2\nvalue = [0, 2, 0, 0, 0, 0, 0, 0, 0, 0]"] ;
207 -> 211 ;
212 [label="X[35] <= 13.0\ngini = 0.073\nsamples = 53\nvalue = [0, 51, 1, 0, 0, 0, 0, 0, 1, 0]"] ;
206 -> 212 ;
213 [label="gini = 0.0\nsamples = 1\nvalue = [0, 0, 0, 0, 0, 0, 0, 0, 1, 0]"] ;
212 -> 213 ;
214 [label="X[36] <= 6.0\ngini = 0.038\nsamples = 52\nvalue = [0, 51, 1, 0, 0, 0, 0, 0, 0, 0]"] ;
212 -> 214 ;
215 [label="gini = 0.0\nsamples = 1\nvalue = [0, 0, 1, 0, 0, 0, 0, 0, 0, 0]"] ;
214 -> 215 ;
216 [label="gini = 0.0\nsamples = 51\nvalue = [0, 51, 0, 0, 0, 0, 0, 0, 0, 0]"] ;
214 -> 216 ;
217 [label="X[21] <= 2.5\ngini = 0.785\nsamples = 874\nvalue = [0, 167, 34, 33, 105, 267, 0, 3, 42, 223]"] ;
97 -> 217 ;
218 [label="X[5] <= 2.5\ngini = 0.436\nsamples = 349\nvalue = [0, 41, 16, 11, 23, 257, 0, 0, 1, 0]"] ;
217 -> 218 ;
219 [label="X[19] <= 15.5\ngini = 0.717\nsamples = 85\nvalue = [0, 37, 16, 9, 18, 4, 0, 0, 1, 0]"] ;
218 -> 219 ;
220 [label="X[54] <= 1.5\ngini = 0.722\nsamples = 47\nvalue = [0, 2, 16, 7, 17, 4, 0, 0, 1, 0]"] ;
219 -> 220 ;
221 [label="X[37] <= 13.0\ngini = 0.265\nsamples = 20\nvalue = [0, 0, 0, 0, 17, 2, 0, 0, 1, 0]"] ;
220 -> 221 ;
222 [label="X[27] <= 11.5\ngini = 0.444\nsamples = 3\nvalue = [0, 0, 0, 0, 0, 2, 0, 0, 1, 0]"] ;
221 -> 222 ;
223 [label="gini = 0.0\nsamples = 1\nvalue = [0, 0, 0, 0, 0, 0, 0, 0, 1, 0]"] ;
222 -> 223 ;
224 [label="gini = 0.0\nsamples = 2\nvalue = [0, 0, 0, 0, 0, 2, 0, 0, 0, 0]"] ;
222 -> 224 ;
225 [label="gini = 0.0\nsamples = 17\nvalue = [0, 0, 0, 0, 17, 0, 0, 0, 0, 0]"] ;
221 -> 225 ;
226 [label="X[27] <= 12.5\ngini = 0.571\nsamples = 27\nvalue = [0, 2, 16, 7, 0, 2, 0, 0, 0, 0]"] ;
220 -> 226 ;
227 [label="X[26] <= 14.5\ngini = 0.111\nsamples = 17\nvalue = [0, 0, 16, 0, 0, 1, 0, 0, 0, 0]"] ;
226 -> 227 ;
228 [label="gini = 0.0\nsamples = 16\nvalue = [0, 0, 16, 0, 0, 0, 0, 0, 0, 0]"] ;
227 -> 228 ;
229 [label="gini = 0.0\nsamples = 1\nvalue = [0, 0, 0, 0, 0, 1, 0, 0, 0, 0]"] ;
227 -> 229 ;
230 [label="X[43] <= 3.0\ngini = 0.46\nsamples = 10\nvalue = [0, 2, 0, 7, 0, 1, 0, 0, 0, 0]"] ;
226 -> 230 ;
231 [label="X[19] <= 7.0\ngini = 0.219\nsamples = 8\nvalue = [0, 0, 0, 7, 0, 1, 0, 0, 0, 0]"] ;
230 -> 231 ;
232 [label="gini = 0.0\nsamples = 1\nvalue = [0, 0, 0, 0, 0, 1, 0, 0, 0, 0]"] ;
231 -> 232 ;
233 [label="gini = 0.0\nsamples = 7\nvalue = [0, 0, 0, 7, 0, 0, 0, 0, 0, 0]"] ;
231 -> 233 ;
234 [label="gini = 0.0\nsamples = 2\nvalue = [0, 2, 0, 0, 0, 0, 0, 0, 0, 0]"] ;
230 -> 234 ;
235 [label="X[10] <= 14.0\ngini = 0.148\nsamples = 38\nvalue = [0, 35, 0, 2, 1, 0, 0, 0, 0, 0]"] ;
219 -> 235 ;
236 [label="X[29] <= 12.5\ngini = 0.054\nsamples = 36\nvalue = [0, 35, 0, 0, 1, 0, 0, 0, 0, 0]"] ;
235 -> 236 ;
237 [label="gini = 0.0\nsamples = 35\nvalue = [0, 35, 0, 0, 0, 0, 0, 0, 0, 0]"] ;
236 -> 237 ;
238 [label="gini = 0.0\nsamples = 1\nvalue = [0, 0, 0, 0, 1, 0, 0, 0, 0, 0]"] ;
236 -> 238 ;
239 [label="gini = 0.0\nsamples = 2\nvalue = [0, 0, 0, 2, 0, 0, 0, 0, 0, 0]"] ;
235 -> 239 ;
240 [label="X[20] <= 10.5\ngini = 0.081\nsamples = 264\nvalue = [0, 4, 0, 2, 5, 253, 0, 0, 0, 0]"] ;
218 -> 240 ;
241 [label="X[30] <= 7.0\ngini = 0.023\nsamples = 256\nvalue = [0, 0, 0, 0, 3, 253, 0, 0, 0, 0]"] ;
240 -> 241 ;
242 [label="gini = 0.0\nsamples = 253\nvalue = [0, 0, 0, 0, 0, 253, 0, 0, 0, 0]"] ;
241 -> 242 ;
243 [label="gini = 0.0\nsamples = 3\nvalue = [0, 0, 0, 0, 3, 0, 0, 0, 0, 0]"] ;
241 -> 243 ;
244 [label="X[45] <= 8.0\ngini = 0.625\nsamples = 8\nvalue = [0, 4, 0, 2, 2, 0, 0, 0, 0, 0]"] ;
240 -> 244 ;
245 [label="gini = 0.0\nsamples = 4\nvalue = [0, 4, 0, 0, 0, 0, 0, 0, 0, 0]"] ;
244 -> 245 ;
246 [label="X[20] <= 12.5\ngini = 0.5\nsamples = 4\nvalue = [0, 0, 0, 2, 2, 0, 0, 0, 0, 0]"] ;
244 -> 246 ;
247 [label="gini = 0.0\nsamples = 2\nvalue = [0, 0, 0, 0, 2, 0, 0, 0, 0, 0]"] ;
246 -> 247 ;
248 [label="gini = 0.0\nsamples = 2\nvalue = [0, 0, 0, 2, 0, 0, 0, 0, 0, 0]"] ;
246 -> 248 ;
249 [label="X[20] <= 15.5\ngini = 0.728\nsamples = 525\nvalue = [0, 126, 18, 22, 82, 10, 0, 3, 41, 223]"] ;
217 -> 249 ;
250 [label="X[33] <= 2.5\ngini = 0.632\nsamples = 374\nvalue = [0, 3, 18, 16, 81, 9, 0, 3, 37, 207]"] ;
249 -> 250 ;
251 [label="X[43] <= 4.5\ngini = 0.529\nsamples = 303\nvalue = [0, 3, 17, 15, 22, 7, 0, 0, 37, 202]"] ;
250 -> 251 ;
252 [label="X[18] <= 3.0\ngini = 0.306\nsamples = 239\nvalue = [0, 3, 5, 13, 15, 5, 0, 0, 0, 198]"] ;
251 -> 252 ;
253 [label="X[29] <= 11.5\ngini = 0.142\nsamples = 13\nvalue = [0, 1, 0, 12, 0, 0, 0, 0, 0, 0]"] ;
252 -> 253 ;
254 [label="gini = 0.0\nsamples = 12\nvalue = [0, 0, 0, 12, 0, 0, 0, 0, 0, 0]"] ;
253 -> 254 ;
255 [label="gini = 0.0\nsamples = 1\nvalue = [0, 1, 0, 0, 0, 0, 0, 0, 0, 0]"] ;
253 -> 255 ;
256 [label="X[21] <= 8.5\ngini = 0.227\nsamples = 226\nvalue = [0, 2, 5, 1, 15, 5, 0, 0, 0, 198]"] ;
252 -> 256 ;
257 [label="X[44] <= 9.5\ngini = 0.739\nsamples = 21\nvalue = [0, 0, 2, 1, 7, 5, 0, 0, 0, 6]"] ;
256 -> 257 ;
258 [label="X[3] <= 11.5\ngini = 0.562\nsamples = 11\nvalue = [0, 0, 0, 1, 0, 4, 0, 0, 0, 6]"] ;
257 -> 258 ;
259 [label="gini = 0.0\nsamples = 5\nvalue = [0, 0, 0, 0, 0, 0, 0, 0, 0, 5]"] ;
258 -> 259 ;
260 [label="X[38] <= 1.0\ngini = 0.5\nsamples = 6\nvalue = [0, 0, 0, 1, 0, 4, 0, 0, 0, 1]"] ;
258 -> 260 ;
261 [label="X[25] <= 1.5\ngini = 0.5\nsamples = 2\nvalue = [0, 0, 0, 1, 0, 0, 0, 0, 0, 1]"] ;
260 -> 261 ;
262 [label="gini = 0.0\nsamples = 1\nvalue = [0, 0, 0, 0, 0, 0, 0, 0, 0, 1]"] ;
261 -> 262 ;
263 [label="gini = 0.0\nsamples = 1\nvalue = [0, 0, 0, 1, 0, 0, 0, 0, 0, 0]"] ;
261 -> 263 ;
264 [label="gini = 0.0\nsamples = 4\nvalue = [0, 0, 0, 0, 0, 4, 0, 0, 0, 0]"] ;
260 -> 264 ;
265 [label="X[2] <= 4.0\ngini = 0.46\nsamples = 10\nvalue = [0, 0, 2, 0, 7, 1, 0, 0, 0, 0]"] ;
257 -> 265 ;
266 [label="gini = 0.0\nsamples = 7\nvalue = [0, 0, 0, 0, 7, 0, 0, 0, 0, 0]"] ;
265 -> 266 ;
267 [label="X[58] <= 7.0\ngini = 0.444\nsamples = 3\nvalue = [0, 0, 2, 0, 0, 1, 0, 0, 0, 0]"] ;
265 -> 267 ;
268 [label="gini = 0.0\nsamples = 1\nvalue = [0, 0, 0, 0, 0, 1, 0, 0, 0, 0]"] ;
267 -> 268 ;
269 [label="gini = 0.0\nsamples = 2\nvalue = [0, 0, 2, 0, 0, 0, 0, 0, 0, 0]"] ;
267 -> 269 ;
270 [label="X[10] <= 7.5\ngini = 0.121\nsamples = 205\nvalue = [0, 2, 3, 0, 8, 0, 0, 0, 0, 192]"] ;
256 -> 270 ;
271 [label="X[25] <= 2.5\ngini = 0.47\nsamples = 31\nvalue = [0, 2, 0, 0, 8, 0, 0, 0, 0, 21]"] ;
270 -> 271 ;
272 [label="gini = 0.0\nsamples = 13\nvalue = [0, 0, 0, 0, 0, 0, 0, 0, 0, 13]"] ;
271 -> 272 ;
273 [label="X[30] <= 9.5\ngini = 0.593\nsamples = 18\nvalue = [0, 2, 0, 0, 8, 0, 0, 0, 0, 8]"] ;
271 -> 273 ;
274 [label="X[11] <= 13.5\ngini = 0.544\nsamples = 13\nvalue = [0, 2, 0, 0, 3, 0, 0, 0, 0, 8]"] ;
273 -> 274 ;
275 [label="X[5] <= 12.5\ngini = 0.48\nsamples = 5\nvalue = [0, 2, 0, 0, 3, 0, 0, 0, 0, 0]"] ;
274 -> 275 ;
276 [label="gini = 0.0\nsamples = 3\nvalue = [0, 0, 0, 0, 3, 0, 0, 0, 0, 0]"] ;
275 -> 276 ;
277 [label="gini = 0.0\nsamples = 2\nvalue = [0, 2, 0, 0, 0, 0, 0, 0, 0, 0]"] ;
275 -> 277 ;
278 [label="gini = 0.0\nsamples = 8\nvalue = [0, 0, 0, 0, 0, 0, 0, 0, 0, 8]"] ;
274 -> 278 ;
279 [label="gini = 0.0\nsamples = 5\nvalue = [0, 0, 0, 0, 5, 0, 0, 0, 0, 0]"] ;
273 -> 279 ;
280 [label="X[62] <= 11.5\ngini = 0.034\nsamples = 174\nvalue = [0, 0, 3, 0, 0, 0, 0, 0, 0, 171]"] ;
270 -> 280 ;
281 [label="X[51] <= 15.0\ngini = 0.012\nsamples = 171\nvalue = [0, 0, 1, 0, 0, 0, 0, 0, 0, 170]"] ;
280 -> 281 ;
282 [label="gini = 0.0\nsamples = 168\nvalue = [0, 0, 0, 0, 0, 0, 0, 0, 0, 168]"] ;
281 -> 282 ;
283 [label="X[3] <= 14.5\ngini = 0.444\nsamples = 3\nvalue = [0, 0, 1, 0, 0, 0, 0, 0, 0, 2]"] ;
281 -> 283 ;
284 [label="gini = 0.0\nsamples = 2\nvalue = [0, 0, 0, 0, 0, 0, 0, 0, 0, 2]"] ;
283 -> 284 ;
285 [label="gini = 0.0\nsamples = 1\nvalue = [0, 0, 1, 0, 0, 0, 0, 0, 0, 0]"] ;
283 -> 285 ;
286 [label="X[36] <= 6.5\ngini = 0.444\nsamples = 3\nvalue = [0, 0, 2, 0, 0, 0, 0, 0, 0, 1]"] ;
280 -> 286 ;
287 [label="gini = 0.0\nsamples = 2\nvalue = [0, 0, 2, 0, 0, 0, 0, 0, 0, 0]"] ;
286 -> 287 ;
288 [label="gini = 0.0\nsamples = 1\nvalue = [0, 0, 0, 0, 0, 0, 0, 0, 0, 1]"] ;
286 -> 288 ;
289 [label="X[35] <= 9.5\ngini = 0.613\nsamples = 64\nvalue = [0, 0, 12, 2, 7, 2, 0, 0, 37, 4]"] ;
251 -> 289 ;
290 [label="X[4] <= 14.0\ngini = 0.32\nsamples = 15\nvalue = [0, 0, 12, 0, 0, 0, 0, 0, 0, 3]"] ;
289 -> 290 ;
291 [label="gini = 0.0\nsamples = 12\nvalue = [0, 0, 12, 0, 0, 0, 0, 0, 0, 0]"] ;
290 -> 291 ;
292 [label="gini = 0.0\nsamples = 3\nvalue = [0, 0, 0, 0, 0, 0, 0, 0, 0, 3]"] ;
290 -> 292 ;
293 [label="X[61] <= 0.5\ngini = 0.406\nsamples = 49\nvalue = [0, 0, 0, 2, 7, 2, 0, 0, 37, 1]"] ;
289 -> 293 ;
294 [label="X[12] <= 4.5\ngini = 0.545\nsamples = 11\nvalue = [0, 0, 0, 0, 7, 2, 0, 0, 1, 1]"] ;
293 -> 294 ;
295 [label="gini = 0.0\nsamples = 7\nvalue = [0, 0, 0, 0, 7, 0, 0, 0, 0, 0]"] ;
294 -> 295 ;
296 [label="X[26] <= 14.0\ngini = 0.625\nsamples = 4\nvalue = [0, 0, 0, 0, 0, 2, 0, 0, 1, 1]"] ;
294 -> 296 ;
297 [label="X[34] <= 7.5\ngini = 0.5\nsamples = 2\nvalue = [0, 0, 0, 0, 0, 0, 0, 0, 1, 1]"] ;
296 -> 297 ;
298 [label="gini = 0.0\nsamples = 1\nvalue = [0, 0, 0, 0, 0, 0, 0, 0, 1, 0]"] ;
297 -> 298 ;
299 [label="gini = 0.0\nsamples = 1\nvalue = [0, 0, 0, 0, 0, 0, 0, 0, 0, 1]"] ;
297 -> 299 ;
300 [label="gini = 0.0\nsamples = 2\nvalue = [0, 0, 0, 0, 0, 2, 0, 0, 0, 0]"] ;
296 -> 300 ;
301 [label="X[51] <= 4.5\ngini = 0.1\nsamples = 38\nvalue = [0, 0, 0, 2, 0, 0, 0, 0, 36, 0]"] ;
293 -> 301 ;
302 [label="X[9] <= 2.0\ngini = 0.444\nsamples = 3\nvalue = [0, 0, 0, 2, 0, 0, 0, 0, 1, 0]"] ;
301 -> 302 ;
303 [label="gini = 0.0\nsamples = 1\nvalue = [0, 0, 0, 0, 0, 0, 0, 0, 1, 0]"] ;
302 -> 303 ;
304 [label="gini = 0.0\nsamples = 2\nvalue = [0, 0, 0, 2, 0, 0, 0, 0, 0, 0]"] ;
302 -> 304 ;
305 [label="gini = 0.0\nsamples = 35\nvalue = [0, 0, 0, 0, 0, 0, 0, 0, 35, 0]"] ;
301 -> 305 ;
306 [label="X[5] <= 6.5\ngini = 0.302\nsamples = 71\nvalue = [0, 0, 1, 1, 59, 2, 0, 3, 0, 5]"] ;
250 -> 306 ;
307 [label="X[10] <= 12.5\ngini = 0.07\nsamples = 56\nvalue = [0, 0, 1, 0, 54, 0, 0, 1, 0, 0]"] ;
306 -> 307 ;
308 [label="gini = 0.0\nsamples = 54\nvalue = [0, 0, 0, 0, 54, 0, 0, 0, 0, 0]"] ;
307 -> 308 ;
309 [label="X[25] <= 6.0\ngini = 0.5\nsamples = 2\nvalue = [0, 0, 1, 0, 0, 0, 0, 1, 0, 0]"] ;
307 -> 309 ;
310 [label="gini = 0.0\nsamples = 1\nvalue = [0, 0, 0, 0, 0, 0, 0, 1, 0, 0]"] ;
309 -> 310 ;
311 [label="gini = 0.0\nsamples = 1\nvalue = [0, 0, 1, 0, 0, 0, 0, 0, 0, 0]"] ;
309 -> 311 ;
312 [label="X[38] <= 4.5\ngini = 0.738\nsamples = 15\nvalue = [0, 0, 0, 1, 5, 2, 0, 2, 0, 5]"] ;
306 -> 312 ;
313 [label="X[18] <= 5.5\ngini = 0.531\nsamples = 8\nvalue = [0, 0, 0, 1, 0, 0, 0, 2, 0, 5]"] ;
312 -> 313 ;
314 [label="X[19] <= 2.5\ngini = 0.444\nsamples = 3\nvalue = [0, 0, 0, 1, 0, 0, 0, 2, 0, 0]"] ;
313 -> 314 ;
315 [label="gini = 0.0\nsamples = 2\nvalue = [0, 0, 0, 0, 0, 0, 0, 2, 0, 0]"] ;
314 -> 315 ;
316 [label="gini = 0.0\nsamples = 1\nvalue = [0, 0, 0, 1, 0, 0, 0, 0, 0, 0]"] ;
314 -> 316 ;
317 [label="gini = 0.0\nsamples = 5\nvalue = [0, 0, 0, 0, 0, 0, 0, 0, 0, 5]"] ;
313 -> 317 ;
318 [label="X[27] <= 15.5\ngini = 0.408\nsamples = 7\nvalue = [0, 0, 0, 0, 5, 2, 0, 0, 0, 0]"] ;
312 -> 318 ;
319 [label="gini = 0.0\nsamples = 5\nvalue = [0, 0, 0, 0, 5, 0, 0, 0, 0, 0]"] ;
318 -> 319 ;
320 [label="gini = 0.0\nsamples = 2\nvalue = [0, 0, 0, 0, 0, 2, 0, 0, 0, 0]"] ;
318 -> 320 ;
321 [label="X[10] <= 11.5\ngini = 0.323\nsamples = 151\nvalue = [0, 123, 0, 6, 1, 1, 0, 0, 4, 16]"] ;
249 -> 321 ;
322 [label="X[28] <= 5.0\ngini = 0.048\nsamples = 123\nvalue = [0, 120, 0, 0, 1, 0, 0, 0, 1, 1]"] ;
321 -> 322 ;
323 [label="X[38] <= 4.5\ngini = 0.5\nsamples = 2\nvalue = [0, 0, 0, 0, 1, 0, 0, 0, 0, 1]"] ;
322 -> 323 ;
324 [label="gini = 0.0\nsamples = 1\nvalue = [0, 0, 0, 0, 0, 0, 0, 0, 0, 1]"] ;
323 -> 324 ;
325 [label="gini = 0.0\nsamples = 1\nvalue = [0, 0, 0, 0, 1, 0, 0, 0, 0, 0]"] ;
323 -> 325 ;
326 [label="X[1] <= 1.0\ngini = 0.016\nsamples = 121\nvalue = [0, 120, 0, 0, 0, 0, 0, 0, 1, 0]"] ;
322 -> 326 ;
327 [label="gini = 0.0\nsamples = 120\nvalue = [0, 120, 0, 0, 0, 0, 0, 0, 0, 0]"] ;
326 -> 327 ;
328 [label="gini = 0.0\nsamples = 1\nvalue = [0, 0, 0, 0, 0, 0, 0, 0, 1, 0]"] ;
326 -> 328 ;
329 [label="X[18] <= 6.0\ngini = 0.643\nsamples = 28\nvalue = [0, 3, 0, 6, 0, 1, 0, 0, 3, 15]"] ;
321 -> 329 ;
330 [label="gini = 0.0\nsamples = 6\nvalue = [0, 0, 0, 6, 0, 0, 0, 0, 0, 0]"] ;
329 -> 330 ;
331 [label="X[43] <= 11.5\ngini = 0.496\nsamples = 22\nvalue = [0, 3, 0, 0, 0, 1, 0, 0, 3, 15]"] ;
329 -> 331 ;
332 [label="X[4] <= 15.5\ngini = 0.117\nsamples = 16\nvalue = [0, 0, 0, 0, 0, 1, 0, 0, 0, 15]"] ;
331 -> 332 ;
333 [label="gini = 0.0\nsamples = 15\nvalue = [0, 0, 0, 0, 0, 0, 0, 0, 0, 15]"] ;
332 -> 333 ;
334 [label="gini = 0.0\nsamples = 1\nvalue = [0, 0, 0, 0, 0, 1, 0, 0, 0, 0]"] ;
332 -> 334 ;
335 [label="X[37] <= 6.0\ngini = 0.5\nsamples = 6\nvalue = [0, 3, 0, 0, 0, 0, 0, 0, 3, 0]"] ;
331 -> 335 ;
336 [label="gini = 0.0\nsamples = 3\nvalue = [0, 0, 0, 0, 0, 0, 0, 0, 3, 0]"] ;
335 -> 336 ;
337 [label="gini = 0.0\nsamples = 3\nvalue = [0, 3, 0, 0, 0, 0, 0, 0, 0, 0]"] ;
335 -> 337 ;
338 [label="X[21] <= 0.5\ngini = 0.782\nsamples = 1203\nvalue = [24, 132, 104, 5, 240, 4, 365, 18, 310, 1]"] ;
96 -> 338 ;
339 [label="X[54] <= 2.5\ngini = 0.461\nsamples = 508\nvalue = [0, 22, 34, 0, 74, 2, 363, 0, 13, 0]"] ;
338 -> 339 ;
340 [label="X[37] <= 5.5\ngini = 0.593\nsamples = 108\nvalue = [0, 21, 3, 0, 64, 2, 13, 0, 5, 0]"] ;
339 -> 340 ;
341 [label="X[27] <= 14.5\ngini = 0.596\nsamples = 36\nvalue = [0, 21, 3, 0, 1, 0, 8, 0, 3, 0]"] ;
340 -> 341 ;
342 [label="X[28] <= 2.5\ngini = 0.583\nsamples = 12\nvalue = [0, 0, 3, 0, 1, 0, 7, 0, 1, 0]"] ;
341 -> 342 ;
343 [label="gini = 0.0\nsamples = 7\nvalue = [0, 0, 0, 0, 0, 0, 7, 0, 0, 0]"] ;
342 -> 343 ;
344 [label="X[41] <= 1.5\ngini = 0.56\nsamples = 5\nvalue = [0, 0, 3, 0, 1, 0, 0, 0, 1, 0]"] ;
342 -> 344 ;
345 [label="gini = 0.0\nsamples = 3\nvalue = [0, 0, 3, 0, 0, 0, 0, 0, 0, 0]"] ;
344 -> 345 ;
346 [label="X[37] <= 3.5\ngini = 0.5\nsamples = 2\nvalue = [0, 0, 0, 0, 1, 0, 0, 0, 1, 0]"] ;
344 -> 346 ;
347 [label="gini = 0.0\nsamples = 1\nvalue = [0, 0, 0, 0, 1, 0, 0, 0, 0, 0]"] ;
346 -> 347 ;
348 [label="gini = 0.0\nsamples = 1\nvalue = [0, 0, 0, 0, 0, 0, 0, 0, 1, 0]"] ;
346 -> 348 ;
349 [label="X[11] <= 13.5\ngini = 0.226\nsamples = 24\nvalue = [0, 21, 0, 0, 0, 0, 1, 0, 2, 0]"] ;
341 -> 349 ;
350 [label="X[2] <= 3.5\ngini = 0.444\nsamples = 3\nvalue = [0, 0, 0, 0, 0, 0, 1, 0, 2, 0]"] ;
349 -> 350 ;
351 [label="gini = 0.0\nsamples = 1\nvalue = [0, 0, 0, 0, 0, 0, 1, 0, 0, 0]"] ;
350 -> 351 ;
352 [label="gini = 0.0\nsamples = 2\nvalue = [0, 0, 0, 0, 0, 0, 0, 0, 2, 0]"] ;
350 -> 352 ;
353 [label="gini = 0.0\nsamples = 21\nvalue = [0, 21, 0, 0, 0, 0, 0, 0, 0, 0]"] ;
349 -> 353 ;
354 [label="X[10] <= 7.0\ngini = 0.228\nsamples = 72\nvalue = [0, 0, 0, 0, 63, 2, 5, 0, 2, 0]"] ;
340 -> 354 ;
355 [label="X[44] <= 4.5\ngini = 0.031\nsamples = 64\nvalue = [0, 0, 0, 0, 63, 0, 1, 0, 0, 0]"] ;
354 -> 355 ;
356 [label="gini = 0.0\nsamples = 1\nvalue = [0, 0, 0, 0, 0, 0, 1, 0, 0, 0]"] ;
355 -> 356 ;
357 [label="gini = 0.0\nsamples = 63\nvalue = [0, 0, 0, 0, 63, 0, 0, 0, 0, 0]"] ;
355 -> 357 ;
358 [label="X[42] <= 14.0\ngini = 0.625\nsamples = 8\nvalue = [0, 0, 0, 0, 0, 2, 4, 0, 2, 0]"] ;
354 -> 358 ;
359 [label="X[4] <= 15.5\ngini = 0.5\nsamples = 4\nvalue = [0, 0, 0, 0, 0, 2, 0, 0, 2, 0]"] ;
358 -> 359 ;
360 [label="gini = 0.0\nsamples = 2\nvalue = [0, 0, 0, 0, 0, 0, 0, 0, 2, 0]"] ;
359 -> 360 ;
361 [label="gini = 0.0\nsamples = 2\nvalue = [0, 0, 0, 0, 0, 2, 0, 0, 0, 0]"] ;
359 -> 361 ;
362 [label="gini = 0.0\nsamples = 4\nvalue = [0, 0, 0, 0, 0, 0, 4, 0, 0, 0]"] ;
358 -> 362 ;
363 [label="X[20] <= 7.5\ngini = 0.227\nsamples = 400\nvalue = [0, 1, 31, 0, 10, 0, 350, 0, 8, 0]"] ;
339 -> 363 ;
364 [label="X[49] <= 5.5\ngini = 0.039\nsamples = 352\nvalue = [0, 0, 1, 0, 4, 0, 345, 0, 2, 0]"] ;
363 -> 364 ;
365 [label="X[58] <= 14.5\ngini = 0.017\nsamples = 345\nvalue = [0, 0, 1, 0, 0, 0, 342, 0, 2, 0]"] ;
364 -> 365 ;
366 [label="X[13] <= 8.5\ngini = 0.012\nsamples = 344\nvalue = [0, 0, 0, 0, 0, 0, 342, 0, 2, 0]"] ;
365 -> 366 ;
367 [label="X[29] <= 15.0\ngini = 0.006\nsamples = 343\nvalue = [0, 0, 0, 0, 0, 0, 342, 0, 1, 0]"] ;
366 -> 367 ;
368 [label="gini = 0.0\nsamples = 342\nvalue = [0, 0, 0, 0, 0, 0, 342, 0, 0, 0]"] ;
367 -> 368 ;
369 [label="gini = 0.0\nsamples = 1\nvalue = [0, 0, 0, 0, 0, 0, 0, 0, 1, 0]"] ;
367 -> 369 ;
370 [label="gini = 0.0\nsamples = 1\nvalue = [0, 0, 0, 0, 0, 0, 0, 0, 1, 0]"] ;
366 -> 370 ;
371 [label="gini = 0.0\nsamples = 1\nvalue = [0, 0, 1, 0, 0, 0, 0, 0, 0, 0]"] ;
365 -> 371 ;
372 [label="X[51] <= 13.0\ngini = 0.49\nsamples = 7\nvalue = [0, 0, 0, 0, 4, 0, 3, 0, 0, 0]"] ;
364 -> 372 ;
373 [label="gini = 0.0\nsamples = 3\nvalue = [0, 0, 0, 0, 0, 0, 3, 0, 0, 0]"] ;
372 -> 373 ;
374 [label="gini = 0.0\nsamples = 4\nvalue = [0, 0, 0, 0, 4, 0, 0, 0, 0, 0]"] ;
372 -> 374 ;
375 [label="X[45] <= 8.5\ngini = 0.567\nsamples = 48\nvalue = [0, 1, 30, 0, 6, 0, 5, 0, 6, 0]"] ;
363 -> 375 ;
376 [label="gini = 0.0\nsamples = 30\nvalue = [0, 0, 30, 0, 0, 0, 0, 0, 0, 0]"] ;
375 -> 376 ;
377 [label="X[51] <= 10.5\ngini = 0.698\nsamples = 18\nvalue = [0, 1, 0, 0, 6, 0, 5, 0, 6, 0]"] ;
375 -> 377 ;
378 [label="gini = 0.0\nsamples = 6\nvalue = [0, 0, 0, 0, 0, 0, 0, 0, 6, 0]"] ;
377 -> 378 ;
379 [label="X[49] <= 3.0\ngini = 0.569\nsamples = 12\nvalue = [0, 1, 0, 0, 6, 0, 5, 0, 0, 0]"] ;
377 -> 379 ;
380 [label="X[36] <= 14.0\ngini = 0.278\nsamples = 6\nvalue = [0, 1, 0, 0, 0, 0, 5, 0, 0, 0]"] ;
379 -> 380 ;
381 [label="gini = 0.0\nsamples = 5\nvalue = [0, 0, 0, 0, 0, 0, 5, 0, 0, 0]"] ;
380 -> 381 ;
382 [label="gini = 0.0\nsamples = 1\nvalue = [0, 1, 0, 0, 0, 0, 0, 0, 0, 0]"] ;
380 -> 382 ;
383 [label="gini = 0.0\nsamples = 6\nvalue = [0, 0, 0, 0, 6, 0, 0, 0, 0, 0]"] ;
379 -> 383 ;
384 [label="X[58] <= 0.5\ngini = 0.723\nsamples = 695\nvalue = [24, 110, 70, 5, 166, 2, 2, 18, 297, 1]"] ;
338 -> 384 ;
385 [label="X[28] <= 13.5\ngini = 0.381\nsamples = 205\nvalue = [2, 23, 0, 0, 159, 0, 1, 7, 12, 1]"] ;
384 -> 385 ;
386 [label="X[26] <= 0.5\ngini = 0.156\nsamples = 170\nvalue = [2, 2, 0, 0, 156, 0, 0, 7, 3, 0]"] ;
385 -> 386 ;
387 [label="gini = 0.0\nsamples = 6\nvalue = [0, 0, 0, 0, 0, 0, 0, 6, 0, 0]"] ;
386 -> 387 ;
388 [label="X[37] <= 6.5\ngini = 0.095\nsamples = 164\nvalue = [2, 2, 0, 0, 156, 0, 0, 1, 3, 0]"] ;
386 -> 388 ;
389 [label="X[43] <= 13.0\ngini = 0.48\nsamples = 5\nvalue = [0, 2, 0, 0, 0, 0, 0, 0, 3, 0]"] ;
388 -> 389 ;
390 [label="gini = 0.0\nsamples = 3\nvalue = [0, 0, 0, 0, 0, 0, 0, 0, 3, 0]"] ;
389 -> 390 ;
391 [label="gini = 0.0\nsamples = 2\nvalue = [0, 2, 0, 0, 0, 0, 0, 0, 0, 0]"] ;
389 -> 391 ;
392 [label="X[13] <= 15.5\ngini = 0.037\nsamples = 159\nvalue = [2, 0, 0, 0, 156, 0, 0, 1, 0, 0]"] ;
388 -> 392 ;
393 [label="X[44] <= 4.0\ngini = 0.025\nsamples = 158\nvalue = [2, 0, 0, 0, 156, 0, 0, 0, 0, 0]"] ;
392 -> 393 ;
394 [label="gini = 0.0\nsamples = 1\nvalue = [1, 0, 0, 0, 0, 0, 0, 0, 0, 0]"] ;
393 -> 394 ;
395 [label="X[41] <= 0.5\ngini = 0.013\nsamples = 157\nvalue = [1, 0, 0, 0, 156, 0, 0, 0, 0, 0]"] ;
393 -> 395 ;
396 [label="X[30] <= 6.5\ngini = 0.444\nsamples = 3\nvalue = [1, 0, 0, 0, 2, 0, 0, 0, 0, 0]"] ;
395 -> 396 ;
397 [label="gini = 0.0\nsamples = 1\nvalue = [1, 0, 0, 0, 0, 0, 0, 0, 0, 0]"] ;
396 -> 397 ;
398 [label="gini = 0.0\nsamples = 2\nvalue = [0, 0, 0, 0, 2, 0, 0, 0, 0, 0]"] ;
396 -> 398 ;
399 [label="gini = 0.0\nsamples = 154\nvalue = [0, 0, 0, 0, 154, 0, 0, 0, 0, 0]"] ;
395 -> 399 ;
400 [label="gini = 0.0\nsamples = 1\nvalue = [0, 0, 0, 0, 0, 0, 0, 1, 0, 0]"] ;
392 -> 400 ;
401 [label="X[12] <= 10.5\ngini = 0.565\nsamples = 35\nvalue = [0, 21, 0, 0, 3, 0, 1, 0, 9, 1]"] ;
385 -> 401 ;
402 [label="gini = 0.0\nsamples = 8\nvalue = [0, 0, 0, 0, 0, 0, 0, 0, 8, 0]"] ;
401 -> 402 ;
403 [label="X[28] <= 15.5\ngini = 0.379\nsamples = 27\nvalue = [0, 21, 0, 0, 3, 0, 1, 0, 1, 1]"] ;
401 -> 403 ;
404 [label="X[41] <= 3.5\ngini = 0.735\nsamples = 7\nvalue = [0, 1, 0, 0, 3, 0, 1, 0, 1, 1]"] ;
403 -> 404 ;
405 [label="X[6] <= 4.0\ngini = 0.75\nsamples = 4\nvalue = [0, 1, 0, 0, 0, 0, 1, 0, 1, 1]"] ;
404 -> 405 ;
406 [label="X[43] <= 7.0\ngini = 0.667\nsamples = 3\nvalue = [0, 0, 0, 0, 0, 0, 1, 0, 1, 1]"] ;
405 -> 406 ;
407 [label="gini = 0.0\nsamples = 1\nvalue = [0, 0, 0, 0, 0, 0, 0, 0, 1, 0]"] ;
406 -> 407 ;
408 [label="X[14] <= 2.0\ngini = 0.5\nsamples = 2\nvalue = [0, 0, 0, 0, 0, 0, 1, 0, 0, 1]"] ;
406 -> 408 ;
409 [label="gini = 0.0\nsamples = 1\nvalue = [0, 0, 0, 0, 0, 0, 1, 0, 0, 0]"] ;
408 -> 409 ;
410 [label="gini = 0.0\nsamples = 1\nvalue = [0, 0, 0, 0, 0, 0, 0, 0, 0, 1]"] ;
408 -> 410 ;
411 [label="gini = 0.0\nsamples = 1\nvalue = [0, 1, 0, 0, 0, 0, 0, 0, 0, 0]"] ;
405 -> 411 ;
412 [label="gini = 0.0\nsamples = 3\nvalue = [0, 0, 0, 0, 3, 0, 0, 0, 0, 0]"] ;
404 -> 412 ;
413 [label="gini = 0.0\nsamples = 20\nvalue = [0, 20, 0, 0, 0, 0, 0, 0, 0, 0]"] ;
403 -> 413 ;
414 [label="X[51] <= 14.5\ngini = 0.607\nsamples = 490\nvalue = [22, 87, 70, 5, 7, 2, 1, 11, 285, 0]"] ;
384 -> 414 ;
415 [label="X[27] <= 7.5\ngini = 0.375\nsamples = 334\nvalue = [16, 1, 43, 5, 3, 2, 0, 4, 260, 0]"] ;
414 -> 415 ;
416 [label="X[26] <= 5.0\ngini = 0.703\nsamples = 65\nvalue = [14, 1, 29, 1, 1, 1, 0, 4, 14, 0]"] ;
415 -> 416 ;
417 [label="X[45] <= 5.0\ngini = 0.37\nsamples = 37\nvalue = [0, 1, 29, 1, 0, 0, 0, 4, 2, 0]"] ;
416 -> 417 ;
418 [label="gini = 0.0\nsamples = 29\nvalue = [0, 0, 29, 0, 0, 0, 0, 0, 0, 0]"] ;
417 -> 418 ;
419 [label="X[51] <= 10.5\ngini = 0.656\nsamples = 8\nvalue = [0, 1, 0, 1, 0, 0, 0, 4, 2, 0]"] ;
417 -> 419 ;
420 [label="X[3] <= 12.5\ngini = 0.625\nsamples = 4\nvalue = [0, 1, 0, 1, 0, 0, 0, 0, 2, 0]"] ;
419 -> 420 ;
421 [label="X[34] <= 8.0\ngini = 0.5\nsamples = 2\nvalue = [0, 1, 0, 1, 0, 0, 0, 0, 0, 0]"] ;
420 -> 421 ;
422 [label="gini = 0.0\nsamples = 1\nvalue = [0, 1, 0, 0, 0, 0, 0, 0, 0, 0]"] ;
421 -> 422 ;
423 [label="gini = 0.0\nsamples = 1\nvalue = [0, 0, 0, 1, 0, 0, 0, 0, 0, 0]"] ;
421 -> 423 ;
424 [label="gini = 0.0\nsamples = 2\nvalue = [0, 0, 0, 0, 0, 0, 0, 0, 2, 0]"] ;
420 -> 424 ;
425 [label="gini = 0.0\nsamples = 4\nvalue = [0, 0, 0, 0, 0, 0, 0, 4, 0, 0]"] ;
419 -> 425 ;
426 [label="X[43] <= 4.0\ngini = 0.564\nsamples = 28\nvalue = [14, 0, 0, 0, 1, 1, 0, 0, 12, 0]"] ;
416 -> 426 ;
427 [label="gini = 0.0\nsamples = 14\nvalue = [14, 0, 0, 0, 0, 0, 0, 0, 0, 0]"] ;
426 -> 427 ;
428 [label="X[33] <= 3.5\ngini = 0.255\nsamples = 14\nvalue = [0, 0, 0, 0, 1, 1, 0, 0, 12, 0]"] ;
426 -> 428 ;
429 [label="gini = 0.0\nsamples = 12\nvalue = [0, 0, 0, 0, 0, 0, 0, 0, 12, 0]"] ;
428 -> 429 ;
430 [label="X[36] <= 10.5\ngini = 0.5\nsamples = 2\nvalue = [0, 0, 0, 0, 1, 1, 0, 0, 0, 0]"] ;
428 -> 430 ;
431 [label="gini = 0.0\nsamples = 1\nvalue = [0, 0, 0, 0, 0, 1, 0, 0, 0, 0]"] ;
430 -> 431 ;
432 [label="gini = 0.0\nsamples = 1\nvalue = [0, 0, 0, 0, 1, 0, 0, 0, 0, 0]"] ;
430 -> 432 ;
433 [label="X[26] <= 0.5\ngini = 0.161\nsamples = 269\nvalue = [2, 0, 14, 4, 2, 1, 0, 0, 246, 0]"] ;
415 -> 433 ;
434 [label="X[44] <= 3.0\ngini = 0.533\nsamples = 33\nvalue = [0, 0, 12, 2, 0, 0, 0, 0, 19, 0]"] ;
433 -> 434 ;
435 [label="X[29] <= 4.5\ngini = 0.338\nsamples = 15\nvalue = [0, 0, 12, 2, 0, 0, 0, 0, 1, 0]"] ;
434 -> 435 ;
436 [label="gini = 0.0\nsamples = 12\nvalue = [0, 0, 12, 0, 0, 0, 0, 0, 0, 0]"] ;
435 -> 436 ;
437 [label="X[50] <= 14.5\ngini = 0.444\nsamples = 3\nvalue = [0, 0, 0, 2, 0, 0, 0, 0, 1, 0]"] ;
435 -> 437 ;
438 [label="gini = 0.0\nsamples = 1\nvalue = [0, 0, 0, 0, 0, 0, 0, 0, 1, 0]"] ;
437 -> 438 ;
439 [label="gini = 0.0\nsamples = 2\nvalue = [0, 0, 0, 2, 0, 0, 0, 0, 0, 0]"] ;
437 -> 439 ;
440 [label="gini = 0.0\nsamples = 18\nvalue = [0, 0, 0, 0, 0, 0, 0, 0, 18, 0]"] ;
434 -> 440 ;
441 [label="X[50] <= 2.0\ngini = 0.075\nsamples = 236\nvalue = [2, 0, 2, 2, 2, 1, 0, 0, 227, 0]"] ;
433 -> 441 ;
442 [label="gini = 0.0\nsamples = 2\nvalue = [0, 0, 0, 0, 2, 0, 0, 0, 0, 0]"] ;
441 -> 442 ;
443 [label="X[35] <= 8.5\ngini = 0.059\nsamples = 234\nvalue = [2, 0, 2, 2, 0, 1, 0, 0, 227, 0]"] ;
441 -> 443 ;
444 [label="X[53] <= 14.0\ngini = 0.628\nsamples = 11\nvalue = [2, 0, 0, 2, 0, 1, 0, 0, 6, 0]"] ;
443 -> 444 ;
445 [label="X[5] <= 11.5\ngini = 0.245\nsamples = 7\nvalue = [0, 0, 0, 1, 0, 0, 0, 0, 6, 0]"] ;
444 -> 445 ;
446 [label="gini = 0.0\nsamples = 6\nvalue = [0, 0, 0, 0, 0, 0, 0, 0, 6, 0]"] ;
445 -> 446 ;
447 [label="gini = 0.0\nsamples = 1\nvalue = [0, 0, 0, 1, 0, 0, 0, 0, 0, 0]"] ;
445 -> 447 ;
448 [label="X[17] <= 3.5\ngini = 0.625\nsamples = 4\nvalue = [2, 0, 0, 1, 0, 1, 0, 0, 0, 0]"] ;
444 -> 448 ;
449 [label="gini = 0.0\nsamples = 2\nvalue = [2, 0, 0, 0, 0, 0, 0, 0, 0, 0]"] ;
448 -> 449 ;
450 [label="X[60] <= 14.0\ngini = 0.5\nsamples = 2\nvalue = [0, 0, 0, 1, 0, 1, 0, 0, 0, 0]"] ;
448 -> 450 ;
451 [label="gini = 0.0\nsamples = 1\nvalue = [0, 0, 0, 1, 0, 0, 0, 0, 0, 0]"] ;
450 -> 451 ;
452 [label="gini = 0.0\nsamples = 1\nvalue = [0, 0, 0, 0, 0, 1, 0, 0, 0, 0]"] ;
450 -> 452 ;
453 [label="X[62] <= 9.5\ngini = 0.018\nsamples = 223\nvalue = [0, 0, 2, 0, 0, 0, 0, 0, 221, 0]"] ;
443 -> 453 ;
454 [label="X[18] <= 1.0\ngini = 0.009\nsamples = 221\nvalue = [0, 0, 1, 0, 0, 0, 0, 0, 220, 0]"] ;
453 -> 454 ;
455 [label="X[43] <= 6.0\ngini = 0.444\nsamples = 3\nvalue = [0, 0, 1, 0, 0, 0, 0, 0, 2, 0]"] ;
454 -> 455 ;
456 [label="gini = 0.0\nsamples = 2\nvalue = [0, 0, 0, 0, 0, 0, 0, 0, 2, 0]"] ;
455 -> 456 ;
457 [label="gini = 0.0\nsamples = 1\nvalue = [0, 0, 1, 0, 0, 0, 0, 0, 0, 0]"] ;
455 -> 457 ;
458 [label="gini = 0.0\nsamples = 218\nvalue = [0, 0, 0, 0, 0, 0, 0, 0, 218, 0]"] ;
454 -> 458 ;
459 [label="X[43] <= 7.0\ngini = 0.5\nsamples = 2\nvalue = [0, 0, 1, 0, 0, 0, 0, 0, 1, 0]"] ;
453 -> 459 ;
460 [label="gini = 0.0\nsamples = 1\nvalue = [0, 0, 0, 0, 0, 0, 0, 0, 1, 0]"] ;
459 -> 460 ;
461 [label="gini = 0.0\nsamples = 1\nvalue = [0, 0, 1, 0, 0, 0, 0, 0, 0, 0]"] ;
459 -> 461 ;
462 [label="X[19] <= 13.5\ngini = 0.636\nsamples = 156\nvalue = [6, 86, 27, 0, 4, 0, 1, 7, 25, 0]"] ;
414 -> 462 ;
463 [label="X[34] <= 2.5\ngini = 0.677\nsamples = 62\nvalue = [4, 0, 27, 0, 2, 0, 1, 7, 21, 0]"] ;
462 -> 463 ;
464 [label="gini = 0.0\nsamples = 21\nvalue = [0, 0, 21, 0, 0, 0, 0, 0, 0, 0]"] ;
463 -> 464 ;
465 [label="X[38] <= 1.0\ngini = 0.675\nsamples = 41\nvalue = [4, 0, 6, 0, 2, 0, 1, 7, 21, 0]"] ;
463 -> 465 ;
466 [label="X[26] <= 1.5\ngini = 0.346\nsamples = 27\nvalue = [0, 0, 6, 0, 0, 0, 0, 0, 21, 0]"] ;
465 -> 466 ;
467 [label="gini = 0.0\nsamples = 5\nvalue = [0, 0, 5, 0, 0, 0, 0, 0, 0, 0]"] ;
466 -> 467 ;
468 [label="X[25] <= 8.5\ngini = 0.087\nsamples = 22\nvalue = [0, 0, 1, 0, 0, 0, 0, 0, 21, 0]"] ;
466 -> 468 ;
469 [label="gini = 0.0\nsamples = 21\nvalue = [0, 0, 0, 0, 0, 0, 0, 0, 21, 0]"] ;
468 -> 469 ;
470 [label="gini = 0.0\nsamples = 1\nvalue = [0, 0, 1, 0, 0, 0, 0, 0, 0, 0]"] ;
468 -> 470 ;
471 [label="X[18] <= 5.5\ngini = 0.643\nsamples = 14\nvalue = [4, 0, 0, 0, 2, 0, 1, 7, 0, 0]"] ;
465 -> 471 ;
472 [label="gini = 0.0\nsamples = 7\nvalue = [0, 0, 0, 0, 0, 0, 0, 7, 0, 0]"] ;
471 -> 472 ;
473 [label="X[36] <= 11.0\ngini = 0.571\nsamples = 7\nvalue = [4, 0, 0, 0, 2, 0, 1, 0, 0, 0]"] ;
471 -> 473 ;
474 [label="gini = 0.0\nsamples = 4\nvalue = [4, 0, 0, 0, 0, 0, 0, 0, 0, 0]"] ;
473 -> 474 ;
475 [label="X[52] <= 13.5\ngini = 0.444\nsamples = 3\nvalue = [0, 0, 0, 0, 2, 0, 1, 0, 0, 0]"] ;
473 -> 475 ;
476 [label="gini = 0.0\nsamples = 2\nvalue = [0, 0, 0, 0, 2, 0, 0, 0, 0, 0]"] ;
475 -> 476 ;
477 [label="gini = 0.0\nsamples = 1\nvalue = [0, 0, 0, 0, 0, 0, 1, 0, 0, 0]"] ;
475 -> 477 ;
478 [label="X[30] <= 5.0\ngini = 0.16\nsamples = 94\nvalue = [2, 86, 0, 0, 2, 0, 0, 0, 4, 0]"] ;
462 -> 478 ;
479 [label="X[50] <= 2.0\ngini = 0.085\nsamples = 90\nvalue = [0, 86, 0, 0, 0, 0, 0, 0, 4, 0]"] ;
478 -> 479 ;
480 [label="gini = 0.0\nsamples = 1\nvalue = [0, 0, 0, 0, 0, 0, 0, 0, 1, 0]"] ;
479 -> 480 ;
481 [label="X[4] <= 5.0\ngini = 0.065\nsamples = 89\nvalue = [0, 86, 0, 0, 0, 0, 0, 0, 3, 0]"] ;
479 -> 481 ;
482 [label="X[3] <= 11.5\ngini = 0.5\nsamples = 4\nvalue = [0, 2, 0, 0, 0, 0, 0, 0, 2, 0]"] ;
481 -> 482 ;
483 [label="gini = 0.0\nsamples = 2\nvalue = [0, 2, 0, 0, 0, 0, 0, 0, 0, 0]"] ;
482 -> 483 ;
484 [label="gini = 0.0\nsamples = 2\nvalue = [0, 0, 0, 0, 0, 0, 0, 0, 2, 0]"] ;
482 -> 484 ;
485 [label="X[25] <= 6.0\ngini = 0.023\nsamples = 85\nvalue = [0, 84, 0, 0, 0, 0, 0, 0, 1, 0]"] ;
481 -> 485 ;
486 [label="gini = 0.0\nsamples = 83\nvalue = [0, 83, 0, 0, 0, 0, 0, 0, 0, 0]"] ;
485 -> 486 ;
487 [label="X[44] <= 14.0\ngini = 0.5\nsamples = 2\nvalue = [0, 1, 0, 0, 0, 0, 0, 0, 1, 0]"] ;
485 -> 487 ;
488 [label="gini = 0.0\nsamples = 1\nvalue = [0, 0, 0, 0, 0, 0, 0, 0, 1, 0]"] ;
487 -> 488 ;
489 [label="gini = 0.0\nsamples = 1\nvalue = [0, 1, 0, 0, 0, 0, 0, 0, 0, 0]"] ;
487 -> 489 ;
490 [label="X[27] <= 8.0\ngini = 0.5\nsamples = 4\nvalue = [2, 0, 0, 0, 2, 0, 0, 0, 0, 0]"] ;
478 -> 490 ;
491 [label="gini = 0.0\nsamples = 2\nvalue = [0, 0, 0, 0, 2, 0, 0, 0, 0, 0]"] ;
490 -> 491 ;
492 [label="gini = 0.0\nsamples = 2\nvalue = [2, 0, 0, 0, 0, 0, 0, 0, 0, 0]"] ;
490 -> 492 ;
}