digraph Tree {
node [shape=box] ;
0 [label="X[12] <= 0.5\ngini = 0.647\nsamples = 297\nvalue = [160, 54, 35, 35, 13]"] ;
1 [label="X[11] <= 0.5\ngini = 0.379\nsamples = 164\nvalue = [127, 22, 7, 6, 2]"] ;
0 -> 1 [labeldistance=2.5, labelangle=45, headlabel="True"] ;
2 [label="X[0] <= 23.5\ngini = 0.204\nsamples = 115\nvalue = [102, 11, 2, 0, 0]"] ;
1 -> 2 ;
3 [label="X[7] <= 13.0\ngini = 0.073\nsamples = 80\nvalue = [77, 2, 1, 0, 0]"] ;
2 -> 3 ;
4 [label="gini = 0.0\nsamples = 1\nvalue = [0, 0, 1, 0, 0]"] ;
3 -> 4 ;
5 [label="gini = 0.049\nsamples = 79\nvalue = [77, 2, 0, 0, 0]"] ;
3 -> 5 ;
6 [label="X[3] <= 37.5\ngini = 0.423\nsamples = 35\nvalue = [25, 9, 1, 0, 0]"] ;
2 -> 6 ;
7 [label="gini = 0.371\nsamples = 30\nvalue = [23, 6, 1, 0, 0]"] ;
6 -> 7 ;
8 [label="gini = 0.48\nsamples = 5\nvalue = [2, 3, 0, 0, 0]"] ;
6 -> 8 ;
9 [label="X[2] <= 2.5\ngini = 0.662\nsamples = 49\nvalue = [25, 11, 5, 6, 2]"] ;
1 -> 9 ;
10 [label="X[9] <= 21.5\ngini = 0.392\nsamples = 29\nvalue = [22, 5, 1, 1, 0]"] ;
9 -> 10 ;
11 [label="gini = 0.349\nsamples = 28\nvalue = [22, 5, 0, 1, 0]"] ;
10 -> 11 ;
12 [label="gini = 0.0\nsamples = 1\nvalue = [0, 0, 1, 0, 0]"] ;
10 -> 12 ;
13 [label="X[10] <= 1.5\ngini = 0.775\nsamples = 20\nvalue = [3, 6, 4, 5, 2]"] ;
9 -> 13 ;
14 [label="gini = 0.772\nsamples = 18\nvalue = [3, 6, 4, 3, 2]"] ;
13 -> 14 ;
15 [label="gini = 0.0\nsamples = 2\nvalue = [0, 0, 0, 2, 0]"] ;
13 -> 15 ;
16 [label="X[11] <= 0.5\ngini = 0.782\nsamples = 133\nvalue = [33, 32, 28, 29, 11]"] ;
0 -> 16 [labeldistance=2.5, labelangle=-45, headlabel="False"] ;
17 [label="X[8] <= 0.5\ngini = 0.695\nsamples = 59\nvalue = [27, 15, 6, 8, 3]"] ;
16 -> 17 ;
18 [label="X[0] <= 17.0\ngini = 0.492\nsamples = 33\nvalue = [22, 8, 0, 2, 1]"] ;
17 -> 18 ;
19 [label="gini = 0.675\nsamples = 13\nvalue = [5, 5, 0, 2, 1]"] ;
18 -> 19 ;
20 [label="gini = 0.255\nsamples = 20\nvalue = [17, 3, 0, 0, 0]"] ;
18 -> 20 ;
21 [label="X[4] <= 105.0\ngini = 0.778\nsamples = 26\nvalue = [5, 7, 6, 6, 2]"] ;
17 -> 21 ;
22 [label="gini = 0.74\nsamples = 17\nvalue = [5, 3, 1, 6, 2]"] ;
21 -> 22 ;
23 [label="gini = 0.494\nsamples = 9\nvalue = [0, 4, 5, 0, 0]"] ;
21 -> 23 ;
24 [label="X[11] <= 1.5\ngini = 0.76\nsamples = 74\nvalue = [6, 17, 22, 21, 8]"] ;
16 -> 24 ;
25 [label="X[7] <= 26.0\ngini = 0.735\nsamples = 36\nvalue = [4, 12, 12, 6, 2]"] ;
24 -> 25 ;
26 [label="gini = 0.663\nsamples = 13\nvalue = [1, 4, 2, 6, 0]"] ;
25 -> 26 ;
27 [label="gini = 0.665\nsamples = 23\nvalue = [3, 8, 10, 0, 2]"] ;
25 -> 27 ;
28 [label="X[3] <= 22.5\ngini = 0.73\nsamples = 38\nvalue = [2, 5, 10, 15, 6]"] ;
24 -> 28 ;
29 [label="gini = 0.698\nsamples = 18\nvalue = [2, 5, 1, 8, 2]"] ;
28 -> 29 ;
30 [label="gini = 0.635\nsamples = 20\nvalue = [0, 0, 9, 7, 4]"] ;
28 -> 30 ;
}